digraph Tree {
node [shape=box, style="filled, rounded", color="black", fontname=helvetica] ;
edge [fontname=helvetica] ;
0 [label="preco <= 59982.246\ngini = 0.487\nsamples = 7500\nvalue = [3150, 4350]\nclass = Sim", fillcolor="#c8e4f8"] ;
1 [label="preco <= 40112.766\ngini = 0.198\nsamples = 3251\nvalue = [363, 2888]\nclass = Sim", fillcolor="#52a9e8"] ;
0 -> 1 [labeldistance=2.5, labelangle=45, headlabel="True"] ;
2 [label="gini = 0.0\nsamples = 1449\nvalue = [0, 1449]\nclass = Sim", fillcolor="#399de5"] ;
1 -> 2 ;
3 [label="gini = 0.322\nsamples = 1802\nvalue = [363, 1439]\nclass = Sim", fillcolor="#6bb6ec"] ;
1 -> 3 ;
4 [label="km_por_ano <= 24124.006\ngini = 0.451\nsamples = 4249\nvalue = [2787, 1462]\nclass = Não", fillcolor="#f3c3a1"] ;
0 -> 4 [labeldistance=2.5, labelangle=-45, headlabel="False"] ;
5 [label="gini = 0.498\nsamples = 2669\nvalue = [1428, 1241]\nclass = Não", fillcolor="#fceee5"] ;
4 -> 5 ;
6 [label="gini = 0.241\nsamples = 1580\nvalue = [1359, 221]\nclass = Não", fillcolor="#e99559"] ;
4 -> 6 ;
}